<?xml version="1.0"?>
<opencv_storage>
<stage1>
  <maxWeakCount>5</maxWeakCount>
  <stageThreshold>-2.5377190113067627e-01</stageThreshold>
  <weakClassifiers>
    <_>
      <internalNodes>
        0 -1 136062 -7.5269676744937897e-02</internalNodes>
      <leafValues>
        8.7096774578094482e-01 -3.9130434393882751e-01</leafValues></_>
    <_>
      <internalNodes>
        0 -1 156995 -2.2151556331664324e-03</internalNodes>
      <leafValues>
        -9.1473400592803955e-01 3.9346686005592346e-01</leafValues></_>
    <_>
      <internalNodes>
        0 -1 6847 3.6722555756568909e-02</internalNodes>
      <leafValues>
        -3.5126525163650513e-01 9.4409185647964478e-01</leafValues></_>
    <_>
      <internalNodes>
        0 -1 24816 -2.1965377032756805e-02</internalNodes>
      <leafValues>
        7.3552143573760986e-01 -4.2711624503135681e-01</leafValues></_>
    <_>
      <internalNodes>
        0 -1 155686 5.6190991017501801e-05</internalNodes>
      <leafValues>
        5.9610080718994141e-01 -6.4019060134887695e-01</leafValues></_></weakClassifiers></stage1>
</opencv_storage>
