<?xml version="1.0"?>
<opencv_storage>
<stage10>
  <maxWeakCount>7</maxWeakCount>
  <stageThreshold>-1.5767127275466919e+00</stageThreshold>
  <weakClassifiers>
    <_>
      <internalNodes>
        0 -1 160586 -2.5659937411546707e-02</internalNodes>
      <leafValues>
        2.6530611515045166e-01 -6.9777774810791016e-01</leafValues></_>
    <_>
      <internalNodes>
        0 -1 11523 -8.2640087930485606e-04</internalNodes>
      <leafValues>
        2.4389584362506866e-01 -5.1384067535400391e-01</leafValues></_>
    <_>
      <internalNodes>
        0 -1 124286 7.4740257114171982e-03</internalNodes>
      <leafValues>
        1.9156862795352936e-01 -7.5573498010635376e-01</leafValues></_>
    <_>
      <internalNodes>
        0 -1 5389 -1.6429668292403221e-02</internalNodes>
      <leafValues>
        -7.3756521940231323e-01 1.9969719648361206e-01</leafValues></_>
    <_>
      <internalNodes>
        0 -1 8915 7.3775700293481350e-03</internalNodes>
      <leafValues>
        -3.2099747657775879e-01 5.1100826263427734e-01</leafValues></_>
    <_>
      <internalNodes>
        0 -1 62942 -1.0329966433346272e-02</internalNodes>
      <leafValues>
        -9.3476575613021851e-01 2.0775544643402100e-01</leafValues></_>
    <_>
      <internalNodes>
        0 -1 105412 1.2387367314659059e-04</internalNodes>
      <leafValues>
        -5.0962108373641968e-01 2.9414436221122742e-01</leafValues></_></weakClassifiers></stage10>
</opencv_storage>
