<?xml version="1.0"?>
<opencv_storage>
<stage17>
  <maxWeakCount>6</maxWeakCount>
  <stageThreshold>-1.0124036073684692e+00</stageThreshold>
  <weakClassifiers>
    <_>
      <internalNodes>
        0 -1 160700 -3.3300076611340046e-03</internalNodes>
      <leafValues>
        -1.5517240762710571e-01 -7.3890340328216553e-01</leafValues></_>
    <_>
      <internalNodes>
        0 -1 162261 -2.2761160507798195e-03</internalNodes>
      <leafValues>
        -8.4635084867477417e-01 2.3394875228404999e-02</leafValues></_>
    <_>
      <internalNodes>
        0 -1 118262 -2.4822636041790247e-03</internalNodes>
      <leafValues>
        4.6935486793518066e-01 -2.6897147297859192e-01</leafValues></_>
    <_>
      <internalNodes>
        0 -1 108672 -2.6155493687838316e-03</internalNodes>
      <leafValues>
        -6.2802129983901978e-01 2.1355235576629639e-01</leafValues></_>
    <_>
      <internalNodes>
        0 -1 134296 -6.3279494643211365e-03</internalNodes>
      <leafValues>
        5.7309645414352417e-01 -2.5496035814285278e-01</leafValues></_>
    <_>
      <internalNodes>
        0 -1 3155 -8.5286106914281845e-03</internalNodes>
      <leafValues>
        -8.1457245349884033e-01 1.5394021570682526e-01</leafValues></_></weakClassifiers></stage17>
</opencv_storage>
