<?xml version="1.0"?>
<opencv_storage>
<stage15>
  <maxWeakCount>8</maxWeakCount>
  <stageThreshold>-1.2971730232238770e+00</stageThreshold>
  <weakClassifiers>
    <_>
      <internalNodes>
        0 -1 50315 -8.3224165439605713e-01</internalNodes>
      <leafValues>
        1. -6.4948451519012451e-01</leafValues></_>
    <_>
      <internalNodes>
        0 -1 162159 -7.0686783874407411e-04</internalNodes>
      <leafValues>
        -7.3224669694900513e-01 9.9844612181186676e-02</leafValues></_>
    <_>
      <internalNodes>
        0 -1 9444 2.1759062074124813e-03</internalNodes>
      <leafValues>
        1.3763046264648438e-01 -7.6722377538681030e-01</leafValues></_>
    <_>
      <internalNodes>
        0 -1 49460 -4.7904998064041138e-04</internalNodes>
      <leafValues>
        -9.2450875043869019e-01 1.2571980059146881e-01</leafValues></_>
    <_>
      <internalNodes>
        0 -1 49460 2.9024755349382758e-04</internalNodes>
      <leafValues>
        1.3086256384849548e-01 -7.9454714059829712e-01</leafValues></_>
    <_>
      <internalNodes>
        0 -1 26494 -1.5915781259536743e-01</internalNodes>
      <leafValues>
        7.8660941123962402e-01 -1.6972887516021729e-01</leafValues></_>
    <_>
      <internalNodes>
        0 -1 162077 -1.9597055506892502e-04</internalNodes>
      <leafValues>
        5.4143399000167847e-01 -2.5238338112831116e-01</leafValues></_>
    <_>
      <internalNodes>
        0 -1 79462 1.9328357651829720e-02</internalNodes>
      <leafValues>
        1.8522065877914429e-01 -8.0332463979721069e-01</leafValues></_></weakClassifiers></stage15>
</opencv_storage>
