<?xml version="1.0"?>
<opencv_storage>
<stage0>
  <maxWeakCount>6</maxWeakCount>
  <stageThreshold>-1.3640875816345215e+00</stageThreshold>
  <weakClassifiers>
    <_>
      <internalNodes>
        0 -1 74360 -2.4856785312294960e-02</internalNodes>
      <leafValues>
        7.4545454978942871e-01 -7.7027028799057007e-01</leafValues></_>
    <_>
      <internalNodes>
        0 -1 79613 1.6601949930191040e-02</internalNodes>
      <leafValues>
        -4.6259802579879761e-01 8.1366044282913208e-01</leafValues></_>
    <_>
      <internalNodes>
        0 -1 4123 1.2748029083013535e-02</internalNodes>
      <leafValues>
        2.8045830130577087e-01 -9.6752583980560303e-01</leafValues></_>
    <_>
      <internalNodes>
        0 -1 131126 -2.9186299070715904e-03</internalNodes>
      <leafValues>
        6.4351224899291992e-01 -4.2839488387107849e-01</leafValues></_>
    <_>
      <internalNodes>
        0 -1 65433 1.8373012542724609e-02</internalNodes>
      <leafValues>
        -3.3018413186073303e-01 7.8501200675964355e-01</leafValues></_>
    <_>
      <internalNodes>
        0 -1 6477 1.3283738493919373e-01</internalNodes>
      <leafValues>
        3.4690138697624207e-01 -8.9552986621856689e-01</leafValues></_></weakClassifiers></stage0>
</opencv_storage>
